~o
<STREAMINFO> 1 13
<VECSIZE> 13<NULLD><MFCC_0><DIAGC>
~h "jose"
<BEGINHMM>
<NUMSTATES> 10
<STATE> 2
<MEAN> 13
 -9.179418e+00 -1.627529e+00 4.015647e-01 1.133927e+00 1.571148e+00 3.090698e+00 -2.708303e+00 8.217342e-01 3.268927e+00 1.049326e-01 -3.459272e-01 -1.403994e-02 6.244239e+01
<VARIANCE> 13
 1.903263e+01 9.994110e+00 3.664426e+01 1.669840e+01 2.742729e+01 5.223891e+01 6.180944e+01 4.516906e+01 7.036060e+01 4.947237e+01 2.779640e+01 2.338373e+01 8.249014e+01
<GCONST> 6.980363e+01
<STATE> 3
<MEAN> 13
 -7.940566e+00 -3.852223e+00 -6.974409e-01 5.717723e+00 3.780962e+00 2.618731e+00 -1.912399e+00 -1.775222e+00 2.758861e+00 -2.755612e+00 -5.348019e-01 6.500509e-01 7.140575e+01
<VARIANCE> 13
 7.099863e+00 1.429848e+01 1.010727e+01 2.028825e+01 1.735654e+01 3.276487e+01 2.940742e+01 1.668288e+01 2.271715e+01 2.173327e+01 2.067422e+01 1.201512e+01 2.838780e+00
<GCONST> 5.913528e+01
<STATE> 4
<MEAN> 13
 -1.311634e+01 -5.814975e+00 2.102323e-01 8.471986e+00 8.644656e+00 -4.173481e-01 5.768948e+00 -7.519563e+00 2.728629e+00 3.250427e+00 -4.084871e+00 9.802683e-01 6.868512e+01
<VARIANCE> 13
 1.137187e+01 6.852456e+00 9.781311e+00 1.661736e+01 3.819632e+01 2.866646e+01 2.103130e+01 3.636980e+01 3.467152e+01 2.508688e+01 1.274311e+01 1.518895e+01 5.938916e+00
<GCONST> 6.079264e+01
<STATE> 5
<MEAN> 13
 -1.178991e+01 -2.461356e+00 1.955300e+00 3.886819e+00 4.782108e+00 3.909326e+00 -1.683848e+00 -1.899610e+00 1.978327e+00 -1.875192e-01 -2.590950e+00 -7.908171e-01 5.669273e+01
<VARIANCE> 13
 2.906471e+01 1.666801e+01 4.107328e+01 2.120206e+01 4.421281e+01 3.544681e+01 3.934488e+01 3.379250e+01 2.689771e+01 3.920884e+01 2.319268e+01 1.260450e+01 1.130179e+02
<GCONST> 6.876090e+01
<STATE> 6
<MEAN> 13
 -1.450666e+01 -6.045434e+00 2.793869e+00 1.197681e+01 7.572569e+00 3.254339e+00 1.013004e+00 -4.463439e+00 5.692630e+00 1.303131e+00 7.630480e-01 -4.245685e+00 5.912423e+01
<VARIANCE> 13
 1.601848e+01 8.341925e+00 1.150162e+01 6.675401e+01 7.318821e+01 2.788804e+01 1.966442e+01 8.403115e+01 5.084529e+01 3.920645e+01 2.449349e+01 2.859430e+01 2.754906e+01
<GCONST> 6.792738e+01
<STATE> 7
<MEAN> 13
 -1.697855e+01 -5.655654e+00 3.950780e+00 1.134123e+01 8.392617e+00 -4.265594e+00 1.797531e+00 -8.280559e+00 5.797878e+00 2.245214e+00 -1.775458e+00 -3.441206e+00 5.127322e+01
<VARIANCE> 13
 2.847745e+01 1.669715e+01 2.513122e+01 1.644922e+01 3.193126e+01 3.386035e+01 4.086234e+01 2.531069e+01 2.646538e+01 2.818407e+01 3.545766e+01 1.609135e+01 1.395808e+01
<GCONST> 6.560568e+01
<STATE> 8
<MEAN> 13
 -1.689704e+01 -4.233828e-01 3.310604e+00 2.382399e+00 4.459487e+00 -9.420001e-01 -3.057247e+00 -9.716385e-01 2.787108e+00 1.624864e+00 -3.731430e+00 -3.479850e+00 4.486062e+01
<VARIANCE> 13
 4.023628e+01 1.280507e+01 2.281725e+01 1.988800e+01 3.204246e+01 1.740280e+01 3.672232e+01 4.193344e+01 3.416481e+01 2.865083e+01 2.072444e+01 1.160446e+01 2.647454e+01
<GCONST> 6.556307e+01
<STATE> 9
<MEAN> 13
 -6.812950e+00 1.738742e+00 4.933398e-02 2.215095e+00 2.524461e+00 -7.404026e-01 -1.759810e-01 -1.714235e+00 -5.094657e-01 -1.328325e-01 -2.607996e+00 -2.055602e+00 3.606464e+01
<VARIANCE> 13
 4.625850e+00 6.439038e+00 8.189710e+00 1.033694e+01 1.712696e+01 2.112582e+01 1.560705e+01 2.705540e+01 1.416490e+01 1.500821e+01 2.161919e+01 1.066227e+01 5.774249e+01
<GCONST> 5.851745e+01
<TRANSP> 10
 0.000000e+00 1.000000e+00 0.000000e+00 0.000000e+00 0.000000e+00 0.000000e+00 0.000000e+00 0.000000e+00 0.000000e+00 0.000000e+00
 0.000000e+00 9.177187e-01 8.228135e-02 0.000000e+00 0.000000e+00 0.000000e+00 0.000000e+00 0.000000e+00 0.000000e+00 0.000000e+00
 0.000000e+00 0.000000e+00 9.283826e-01 7.161736e-02 0.000000e+00 0.000000e+00 0.000000e+00 0.000000e+00 0.000000e+00 0.000000e+00
 0.000000e+00 0.000000e+00 0.000000e+00 9.116554e-01 8.834465e-02 0.000000e+00 0.000000e+00 0.000000e+00 0.000000e+00 0.000000e+00
 0.000000e+00 0.000000e+00 0.000000e+00 0.000000e+00 9.052348e-01 9.476520e-02 0.000000e+00 0.000000e+00 0.000000e+00 0.000000e+00
 0.000000e+00 0.000000e+00 0.000000e+00 0.000000e+00 0.000000e+00 9.029741e-01 9.702595e-02 0.000000e+00 0.000000e+00 0.000000e+00
 0.000000e+00 0.000000e+00 0.000000e+00 0.000000e+00 0.000000e+00 0.000000e+00 9.389203e-01 6.107968e-02 0.000000e+00 0.000000e+00
 0.000000e+00 0.000000e+00 0.000000e+00 0.000000e+00 0.000000e+00 0.000000e+00 0.000000e+00 9.252157e-01 7.478432e-02 0.000000e+00
 0.000000e+00 0.000000e+00 0.000000e+00 0.000000e+00 0.000000e+00 0.000000e+00 0.000000e+00 0.000000e+00 9.036586e-01 9.634140e-02
 0.000000e+00 0.000000e+00 0.000000e+00 0.000000e+00 0.000000e+00 0.000000e+00 0.000000e+00 0.000000e+00 0.000000e+00 0.000000e+00
<ENDHMM>
