~o
<STREAMINFO> 1 13
<VECSIZE> 13<NULLD><MFCC_0><DIAGC>
~h "maria"
<BEGINHMM>
<NUMSTATES> 10
<STATE> 2
<MEAN> 13
 -7.931972e+00 5.172880e+00 -5.935587e+00 5.407625e+00 -1.063433e+01 -5.916564e+00 7.485886e+00 -9.376316e+00 -1.198505e+00 -4.595655e-01 2.226577e+00 -1.399915e+00 7.101720e+01
<VARIANCE> 13
 8.092495e+00 2.668589e+00 1.755288e+01 2.215072e+01 3.903862e+01 1.809021e+01 2.635071e+01 3.615615e+01 2.654023e+01 1.586667e+01 1.770407e+01 1.272544e+01 6.959300e+01
<GCONST> 6.205019e+01
<STATE> 3
<MEAN> 13
 -7.931910e+00 -3.856759e-01 -7.102328e+00 4.417747e+00 -1.164524e+01 -1.758703e+01 4.627542e+00 -4.147157e+00 3.523290e+00 2.425306e+00 -3.738194e+00 1.787902e+00 7.263453e+01
<VARIANCE> 13
 3.177899e+00 9.137471e+00 1.011526e+01 1.592970e+01 8.134912e+00 2.776597e+01 4.303241e+01 5.314233e+01 4.164133e+01 4.781468e+01 2.935674e+01 2.491088e+01 1.502109e+00
<GCONST> 6.009626e+01
<STATE> 4
<MEAN> 13
 -4.969222e+00 -2.155142e+00 -1.030381e+01 1.081517e+01 -9.612351e+00 -1.097879e+01 -1.327576e+00 -9.599644e+00 4.838874e+00 4.795037e-01 -3.950634e-01 3.534817e+00 6.577718e+01
<VARIANCE> 13
 3.460672e+00 4.498569e+00 6.125392e+00 1.172743e+01 1.587970e+01 7.852518e+01 4.457908e+01 2.672605e+01 3.608479e+01 3.740903e+01 3.158578e+01 3.919629e+01 1.158066e+01
<GCONST> 6.190177e+01
<STATE> 5
<MEAN> 13
 -2.424865e+00 2.786689e+00 -5.860449e+00 9.614615e+00 -7.572605e+00 -1.174476e+01 -2.468451e+00 -1.037773e+01 -2.101975e+00 -2.496981e+00 4.760258e-01 -2.061764e-01 6.077168e+01
<VARIANCE> 13
 1.053443e+01 1.047281e+01 2.763651e+01 9.635934e+00 2.775460e+01 4.265893e+01 6.651596e+01 5.167786e+01 3.834305e+01 1.782718e+01 2.356873e+01 2.138609e+01 5.139678e+01
<GCONST> 6.608912e+01
<STATE> 6
<MEAN> 13
 4.592597e+00 7.281374e+00 -1.355435e+00 1.071197e+01 -3.339889e+00 5.403292e-01 5.358710e-01 -9.956632e+00 1.814609e+00 -6.403527e+00 3.358425e+00 2.196850e+00 6.236565e+01
<VARIANCE> 13
 2.033756e+00 4.012431e+00 4.170879e+00 7.765419e+00 7.508285e+00 1.938021e+01 2.304203e+01 1.848989e+01 2.027207e+01 2.336055e+01 2.093624e+01 1.933806e+01 1.741811e+01
<GCONST> 5.552565e+01
<STATE> 7
<MEAN> 13
 -2.125108e+00 3.940017e+00 3.740410e+00 6.231467e+00 -5.066612e+00 -3.386116e+00 4.279134e+00 -7.296860e+00 -2.953321e-01 -1.382582e+00 2.569118e+00 1.644678e+00 5.232132e+01
<VARIANCE> 13
 1.945685e+01 5.826933e+00 8.083140e+00 1.504375e+01 5.545080e+01 2.424131e+01 5.199763e+01 3.260627e+01 8.793062e+00 1.140335e+01 1.142911e+01 1.135357e+01 7.974102e+00
<GCONST> 5.961285e+01
<STATE> 8
<MEAN> 13
 1.091470e+00 6.079206e+00 1.425053e+00 1.278848e+01 5.865614e-01 -1.831516e+00 -3.966334e+00 -4.911482e+00 -3.594487e-01 -3.403300e+00 -1.629787e+00 -3.412651e-01 5.063519e+01
<VARIANCE> 13
 3.068747e+00 4.329650e+00 4.361602e+00 9.455018e+00 1.953805e+01 2.374836e+01 3.027144e+01 2.850534e+01 1.291775e+01 1.271762e+01 1.690341e+01 1.330187e+01 4.645983e+00
<GCONST> 5.515173e+01
<STATE> 9
<MEAN> 13
 -1.122458e+00 4.892975e+00 2.873860e+00 6.810064e+00 1.434744e+00 -7.455553e-01 -1.829336e+00 -9.659340e-01 -6.370257e-01 -1.191820e+00 7.023668e-01 5.305843e-01 4.585770e+01
<VARIANCE> 13
 1.239133e+00 2.600339e+00 4.631896e+00 1.421923e+01 1.121944e+01 1.102966e+01 1.315540e+01 1.249760e+01 1.807076e+01 1.362632e+01 1.097231e+01 9.225931e+00 1.277646e+00
<GCONST> 4.953933e+01
<TRANSP> 10
 0.000000e+00 1.000000e+00 0.000000e+00 0.000000e+00 0.000000e+00 0.000000e+00 0.000000e+00 0.000000e+00 0.000000e+00 0.000000e+00
 0.000000e+00 8.510396e-01 1.489604e-01 0.000000e+00 0.000000e+00 0.000000e+00 0.000000e+00 0.000000e+00 0.000000e+00 0.000000e+00
 0.000000e+00 0.000000e+00 8.831325e-01 1.168676e-01 0.000000e+00 0.000000e+00 0.000000e+00 0.000000e+00 0.000000e+00 0.000000e+00
 0.000000e+00 0.000000e+00 0.000000e+00 8.822705e-01 1.177296e-01 0.000000e+00 0.000000e+00 0.000000e+00 0.000000e+00 0.000000e+00
 0.000000e+00 0.000000e+00 0.000000e+00 0.000000e+00 9.131228e-01 8.687720e-02 0.000000e+00 0.000000e+00 0.000000e+00 0.000000e+00
 0.000000e+00 0.000000e+00 0.000000e+00 0.000000e+00 0.000000e+00 8.718551e-01 1.281449e-01 0.000000e+00 0.000000e+00 0.000000e+00
 0.000000e+00 0.000000e+00 0.000000e+00 0.000000e+00 0.000000e+00 0.000000e+00 8.236316e-01 1.763684e-01 0.000000e+00 0.000000e+00
 0.000000e+00 0.000000e+00 0.000000e+00 0.000000e+00 0.000000e+00 0.000000e+00 0.000000e+00 8.689414e-01 1.310587e-01 0.000000e+00
 0.000000e+00 0.000000e+00 0.000000e+00 0.000000e+00 0.000000e+00 0.000000e+00 0.000000e+00 0.000000e+00 8.840235e-01 1.159765e-01
 0.000000e+00 0.000000e+00 0.000000e+00 0.000000e+00 0.000000e+00 0.000000e+00 0.000000e+00 0.000000e+00 0.000000e+00 0.000000e+00
<ENDHMM>
