~o
<STREAMINFO> 1 13
<VECSIZE> 13<NULLD><MFCC_0><DIAGC>
~h "yang"
<BEGINHMM>
<NUMSTATES> 10
<STATE> 2
<MEAN> 13
 -6.851581e+00 -3.256537e+00 4.262033e-01 1.776557e+00 -7.704409e+00 -1.220217e+00 2.831025e+00 -4.474627e+00 2.190875e+00 -2.408082e+00 3.632453e+00 -1.619510e+00 7.438828e+01
<VARIANCE> 13
 9.573687e+00 2.581144e+01 3.466673e+01 1.786438e+01 2.177091e+01 3.831683e+01 2.564385e+01 2.000407e+01 1.323035e+01 2.442925e+01 2.491427e+01 1.680096e+01 3.578285e+01
<GCONST> 6.419018e+01
<STATE> 3
<MEAN> 13
 -1.068970e+01 -7.827223e+00 2.242387e+00 6.242478e+00 -2.513461e+00 3.689726e-01 2.902157e-01 -5.614641e+00 5.534690e+00 -3.896007e+00 -1.937896e+00 -5.891821e-01 7.578487e+01
<VARIANCE> 13
 4.208253e+00 1.055413e+01 2.240871e+01 1.479681e+01 2.302497e+01 3.515826e+01 5.887487e+01 2.215961e+01 3.247398e+01 2.146408e+01 3.499892e+01 3.848568e+01 2.176729e+00
<GCONST> 6.189019e+01
<STATE> 4
<MEAN> 13
 -1.278700e+01 -5.938577e+00 5.477813e+00 2.057457e+00 3.752308e+00 6.560578e+00 -1.583427e+00 -5.585769e+00 4.243935e+00 -5.785221e+00 5.858208e+00 -3.563082e+00 7.267278e+01
<VARIANCE> 13
 6.890351e+00 1.945462e+01 2.738044e+01 2.788141e+01 1.082038e+01 3.051058e+01 3.002722e+01 1.464313e+01 5.550072e+01 2.055660e+01 5.082370e+01 2.594966e+01 8.643019e-01
<GCONST> 6.139224e+01
<STATE> 5
<MEAN> 13
 -1.210899e+01 -9.798148e+00 7.685622e+00 1.542663e+00 5.823215e+00 3.982645e+00 6.569202e+00 -2.754673e+00 6.913423e+00 -4.440252e-01 5.735168e+00 -7.725563e+00 6.993353e+01
<VARIANCE> 13
 2.396551e+01 1.477763e+01 4.177900e+01 5.722355e+01 3.449370e+01 1.494171e+01 5.721756e+01 6.852076e+01 1.702507e+01 3.666991e+01 4.535529e+01 1.023888e+02 7.884818e+00
<GCONST> 6.900531e+01
<STATE> 6
<MEAN> 13
 -1.191344e+01 -1.210238e+01 8.638118e+00 -4.099268e+00 4.495355e+00 -5.208271e+00 1.206337e+01 -3.794857e+00 3.312448e+00 -4.897701e-01 4.389272e+00 -2.357081e+00 6.614536e+01
<VARIANCE> 13
 1.558050e+01 4.900092e+00 5.282253e+01 5.958923e+01 5.451928e+01 5.037951e+01 2.570812e+02 6.766427e+01 5.628992e+01 1.238434e+01 4.655232e+01 4.711602e+01 1.547902e+01
<GCONST> 7.094381e+01
<STATE> 7
<MEAN> 13
 -6.810630e+00 -7.401484e+00 3.330176e+00 5.879747e+00 -6.865677e-01 -2.998492e+00 -2.663965e+00 -3.541775e+00 4.418762e+00 -4.848753e+00 1.450461e+00 -1.738322e-01 7.017290e+01
<VARIANCE> 13
 9.902075e+00 1.030322e+01 1.519691e+01 1.584088e+01 2.306969e+01 2.255543e+01 4.696972e+01 2.428706e+01 2.659207e+01 3.681866e+01 3.690083e+01 3.179215e+01 1.987009e+01
<GCONST> 6.423852e+01
<STATE> 8
<MEAN> 13
 -5.876797e+00 -5.188226e+00 7.914068e+00 4.081278e+00 4.222236e+00 -1.796683e+00 2.998123e+00 -3.621573e+00 2.931771e+00 -8.224892e+00 2.129761e+00 -2.333804e+00 6.532075e+01
<VARIANCE> 13
 1.266937e+01 1.284027e+01 2.802320e+01 2.728036e+01 3.588254e+01 2.238222e+01 1.924537e+01 2.655054e+01 4.614087e+01 7.126345e+01 1.456088e+01 1.433196e+01 4.235633e+01
<GCONST> 6.573325e+01
<STATE> 9
<MEAN> 13
 -7.067917e+00 -1.839254e+00 5.411131e+00 4.936658e+00 1.982358e+00 8.088601e-01 3.292658e+00 7.695019e-01 1.028059e+00 -1.246137e+00 2.320781e+00 3.518624e-01 5.214794e+01
<VARIANCE> 13
 3.964864e+00 7.761835e+00 2.726962e+01 1.416618e+01 1.140255e+01 1.037301e+01 2.999356e+01 1.568938e+01 1.378793e+01 1.867320e+01 1.587878e+01 1.712290e+01 1.602275e+01
<GCONST> 5.813303e+01
<TRANSP> 10
 0.000000e+00 1.000000e+00 0.000000e+00 0.000000e+00 0.000000e+00 0.000000e+00 0.000000e+00 0.000000e+00 0.000000e+00 0.000000e+00
 0.000000e+00 7.760934e-01 2.239066e-01 0.000000e+00 0.000000e+00 0.000000e+00 0.000000e+00 0.000000e+00 0.000000e+00 0.000000e+00
 0.000000e+00 0.000000e+00 8.756955e-01 1.243046e-01 0.000000e+00 0.000000e+00 0.000000e+00 0.000000e+00 0.000000e+00 0.000000e+00
 0.000000e+00 0.000000e+00 0.000000e+00 7.958438e-01 2.041562e-01 0.000000e+00 0.000000e+00 0.000000e+00 0.000000e+00 0.000000e+00
 0.000000e+00 0.000000e+00 0.000000e+00 0.000000e+00 6.987097e-01 3.012904e-01 0.000000e+00 0.000000e+00 0.000000e+00 0.000000e+00
 0.000000e+00 0.000000e+00 0.000000e+00 0.000000e+00 0.000000e+00 5.857819e-01 4.142182e-01 0.000000e+00 0.000000e+00 0.000000e+00
 0.000000e+00 0.000000e+00 0.000000e+00 0.000000e+00 0.000000e+00 0.000000e+00 8.314008e-01 1.685992e-01 0.000000e+00 0.000000e+00
 0.000000e+00 0.000000e+00 0.000000e+00 0.000000e+00 0.000000e+00 0.000000e+00 0.000000e+00 7.059630e-01 2.940370e-01 0.000000e+00
 0.000000e+00 0.000000e+00 0.000000e+00 0.000000e+00 0.000000e+00 0.000000e+00 0.000000e+00 0.000000e+00 7.941800e-01 2.058201e-01
 0.000000e+00 0.000000e+00 0.000000e+00 0.000000e+00 0.000000e+00 0.000000e+00 0.000000e+00 0.000000e+00 0.000000e+00 0.000000e+00
<ENDHMM>
