~o
<STREAMINFO> 1 13
<VECSIZE> 13<NULLD><MFCC_0><DIAGC>
~h "zhiwei"
<BEGINHMM>
<NUMSTATES> 10
<STATE> 2
<MEAN> 13
 -5.331357e+00 1.744160e+00 -4.546648e+00 3.092937e+00 -8.459329e-01 -5.827302e+00 -2.664429e+00 -1.646656e+00 -5.327238e-01 -4.363643e-01 -2.292657e+00 1.424351e+00 4.955756e+01
<VARIANCE> 13
 9.153743e+00 8.740624e+00 3.589404e+01 1.915145e+01 1.368223e+01 5.336682e+01 2.019499e+01 1.718438e+01 2.421619e+01 1.298853e+01 1.252151e+01 1.072871e+01 4.454665e+02
<GCONST> 6.400080e+01
<STATE> 3
<MEAN> 13
 -6.327274e+00 3.118981e-01 -3.246969e-01 1.091392e+00 -6.873005e-02 1.266042e+00 -3.048770e-01 1.138355e+00 1.392995e+00 -2.785897e-01 -3.534363e-01 8.124263e-01 4.476729e+01
<VARIANCE> 13
 2.363595e+00 7.548318e+00 1.555854e+01 1.449884e+01 1.673445e+01 2.577763e+01 1.299816e+01 1.166117e+01 1.306207e+01 1.347360e+01 1.385118e+01 1.393234e+01 1.262889e+02
<GCONST> 5.855224e+01
<STATE> 4
<MEAN> 13
 -6.265875e+00 -9.641757e-01 -4.782267e+00 -2.131049e+00 -1.351138e+00 -5.585858e+00 8.963028e-01 -2.141818e+00 -2.455735e+00 5.344079e-01 -3.812873e-01 2.660598e+00 7.604610e+01
<VARIANCE> 13
 1.469569e+01 9.970439e+00 1.984710e+01 5.093468e+01 3.660044e+01 3.506761e+01 2.436698e+01 2.005951e+01 2.152873e+01 1.193318e+01 1.958593e+01 1.864606e+01 1.405428e+01
<GCONST> 6.323954e+01
<STATE> 5
<MEAN> 13
 -6.527400e+00 -1.342877e+00 -4.036770e+00 1.785868e+00 1.002509e-01 -3.886730e+00 6.945735e-01 -8.078507e-01 -6.595866e+00 2.878508e+00 5.901678e-01 1.798053e+00 6.942866e+01
<VARIANCE> 13
 1.474338e+01 1.214784e+01 2.061920e+01 2.284889e+01 8.347008e+00 1.279296e+01 2.053737e+01 2.541454e+01 2.232327e+01 2.066864e+01 1.950894e+01 1.658239e+01 6.748985e+00
<GCONST> 5.998670e+01
<STATE> 6
<MEAN> 13
 -5.104750e+00 -4.733500e+00 -4.267349e+00 4.936039e+00 -1.287619e+00 -5.464714e+00 6.905774e-01 8.088930e-01 -5.307446e+00 -7.908266e-01 1.510877e-01 1.847916e+00 6.276894e+01
<VARIANCE> 13
 8.284956e+00 1.227724e+01 1.647649e+01 2.840888e+01 1.825713e+01 3.649922e+01 3.904696e+01 3.069280e+01 1.915517e+01 2.236099e+01 2.160831e+01 3.022456e+01 1.122107e+01
<GCONST> 6.321328e+01
<STATE> 7
<MEAN> 13
 -2.279531e+00 -1.040489e-01 -2.071421e+00 8.772870e+00 1.146135e+00 -5.372962e+00 -4.133813e+00 2.540256e+00 -2.799420e+00 2.359621e-01 -5.046511e+00 2.417662e+00 6.295563e+01
<VARIANCE> 13
 5.250347e+00 4.870804e+00 8.976782e+00 4.162121e+01 1.438944e+01 4.254278e+01 2.524604e+01 1.090049e+01 2.177284e+01 9.472299e+00 1.134214e+01 1.094419e+01 1.461952e+01
<GCONST> 5.792442e+01
<STATE> 8
<MEAN> 13
 -5.571606e+00 1.206125e+00 -5.842492e+00 7.830536e+00 2.169537e+00 -5.070888e+00 -3.290040e-01 9.117113e-01 -2.335650e+00 8.431833e-01 -2.730108e+00 2.526150e+00 5.759949e+01
<VARIANCE> 13
 6.889616e+00 7.594458e+00 8.881165e+00 1.183016e+01 1.303898e+01 2.040246e+01 1.384068e+01 1.168293e+01 1.367398e+01 1.708251e+01 1.669959e+01 1.550114e+01 5.733877e+00
<GCONST> 5.593000e+01
<STATE> 9
<MEAN> 13
 -5.101469e+00 1.697402e+00 -2.346604e+00 6.897304e+00 3.498552e+00 -2.033246e+00 -4.227493e-01 1.477235e+00 -2.186123e+00 9.655109e-01 -3.385532e+00 8.723926e-01 5.160285e+01
<VARIANCE> 13
 6.033961e+00 9.144597e+00 4.966329e+00 1.738055e+01 1.088755e+01 1.979118e+01 1.898115e+01 1.340975e+01 1.880885e+01 1.379773e+01 1.038536e+01 1.216206e+01 8.943242e+00
<GCONST> 5.586173e+01
<TRANSP> 10
 0.000000e+00 1.000000e+00 0.000000e+00 0.000000e+00 0.000000e+00 0.000000e+00 0.000000e+00 0.000000e+00 0.000000e+00 0.000000e+00
 0.000000e+00 5.888761e-01 4.111239e-01 0.000000e+00 0.000000e+00 0.000000e+00 0.000000e+00 0.000000e+00 0.000000e+00 0.000000e+00
 0.000000e+00 0.000000e+00 7.862662e-01 2.137338e-01 0.000000e+00 0.000000e+00 0.000000e+00 0.000000e+00 0.000000e+00 0.000000e+00
 0.000000e+00 0.000000e+00 0.000000e+00 8.050999e-01 1.949002e-01 0.000000e+00 0.000000e+00 0.000000e+00 0.000000e+00 0.000000e+00
 0.000000e+00 0.000000e+00 0.000000e+00 0.000000e+00 8.348771e-01 1.651229e-01 0.000000e+00 0.000000e+00 0.000000e+00 0.000000e+00
 0.000000e+00 0.000000e+00 0.000000e+00 0.000000e+00 0.000000e+00 7.936665e-01 2.063336e-01 0.000000e+00 0.000000e+00 0.000000e+00
 0.000000e+00 0.000000e+00 0.000000e+00 0.000000e+00 0.000000e+00 0.000000e+00 8.179456e-01 1.820544e-01 0.000000e+00 0.000000e+00
 0.000000e+00 0.000000e+00 0.000000e+00 0.000000e+00 0.000000e+00 0.000000e+00 0.000000e+00 8.105581e-01 1.894418e-01 0.000000e+00
 0.000000e+00 0.000000e+00 0.000000e+00 0.000000e+00 0.000000e+00 0.000000e+00 0.000000e+00 0.000000e+00 7.458023e-01 2.541977e-01
 0.000000e+00 0.000000e+00 0.000000e+00 0.000000e+00 0.000000e+00 0.000000e+00 0.000000e+00 0.000000e+00 0.000000e+00 0.000000e+00
<ENDHMM>
