~o
<STREAMINFO> 1 13
<VECSIZE> 13<NULLD><MFCC_0><DIAGC>
~h "cough"
<BEGINHMM>
<NUMSTATES> 10
<STATE> 2
<MEAN> 13
 -6.351238e+00 1.347321e+00 -1.034890e+00 -2.593268e+00 -1.447371e+00 -5.938578e-01 -1.913826e+00 5.984546e-02 -2.258674e-01 -4.462461e-01 -3.347057e-01 2.595526e-01 5.911263e+01
<VARIANCE> 13
 2.686940e+01 3.357980e+01 5.442691e+01 4.730279e+01 4.386102e+01 4.598315e+01 4.957541e+01 3.899618e+01 3.339354e+01 2.981629e+01 2.551014e+01 2.125307e+01 1.214827e+02
<GCONST> 7.172577e+01
<STATE> 3
<MEAN> 13
 -6.900766e+00 -2.015904e+00 -3.435139e+00 -2.537537e+00 -3.286820e+00 -1.621238e+00 -8.561326e-01 -1.689757e+00 -1.531069e+00 -1.000267e+00 -7.067550e-01 -4.750520e-01 7.528580e+01
<VARIANCE> 13
 1.515763e+01 2.870401e+01 4.998967e+01 6.002814e+01 5.273013e+01 5.746080e+01 5.001271e+01 5.150658e+01 4.402974e+01 3.763548e+01 3.872852e+01 2.478001e+01 1.417652e+01
<GCONST> 7.077587e+01
<STATE> 4
<MEAN> 13
 -8.285389e+00 -3.694559e-01 -1.797060e+00 -1.586674e-01 -1.901846e+00 -1.937085e+00 -2.580760e+00 -3.115180e+00 -4.214426e-01 -1.154562e+00 -3.973636e-01 -2.872059e-01 6.866798e+01
<VARIANCE> 13
 1.542525e+01 2.009071e+01 3.967949e+01 5.565504e+01 4.104364e+01 4.660471e+01 4.195877e+01 4.160023e+01 3.193560e+01 2.979571e+01 2.408770e+01 1.979476e+01 1.034673e+01
<GCONST> 6.771169e+01
<STATE> 5
<MEAN> 13
 -1.010165e+01 -6.760675e+00 -4.076013e+00 -1.542849e+00 5.826092e-01 1.152527e+00 1.288601e-01 -3.840146e+00 -1.895777e+00 -3.278346e-01 7.097933e-02 -5.274316e-01 6.535895e+01
<VARIANCE> 13
 1.592902e+01 2.352909e+01 5.139739e+01 5.425431e+01 6.699100e+01 8.762216e+01 7.630806e+01 7.908909e+01 5.549384e+01 4.957399e+01 4.854573e+01 3.883950e+01 2.261855e+01
<GCONST> 7.371545e+01
<STATE> 6
<MEAN> 13
 -6.818124e+00 -4.167749e+00 -2.505713e+00 -2.915870e+00 -8.848289e+00 -4.549129e+00 3.057542e-01 3.616806e-01 2.264385e-01 -1.288567e-01 1.831036e+00 -7.697014e-01 6.627435e+01
<VARIANCE> 13
 1.723184e+01 2.925846e+01 5.863773e+01 6.741412e+01 6.504368e+01 7.452582e+01 7.925701e+01 8.065028e+01 6.801485e+01 5.663259e+01 5.046070e+01 3.473573e+01 3.325162e+01
<GCONST> 7.487597e+01
<STATE> 7
<MEAN> 13
 -3.751195e+00 -1.114141e+00 -1.473573e-01 2.554688e+00 -6.545789e-01 -2.947724e+00 -3.160534e+00 -4.142643e+00 -4.348766e+00 -4.012998e+00 -2.239362e+00 -1.874348e+00 6.483547e+01
<VARIANCE> 13
 2.327841e+01 2.653562e+01 4.262692e+01 5.704986e+01 6.359549e+01 8.544655e+01 1.068243e+02 9.912453e+01 1.117484e+02 8.360070e+01 5.697721e+01 4.548217e+01 3.568593e+01
<GCONST> 7.655984e+01
<STATE> 8
<MEAN> 13
 -7.805342e+00 -5.067229e-01 -3.743190e-01 -7.779244e-01 -4.017513e-01 -2.320828e+00 -4.518812e-01 -2.478393e+00 1.061220e+00 -2.792249e-01 5.379390e-01 -7.970859e-03 5.613752e+01
<VARIANCE> 13
 4.320261e+01 3.199148e+01 6.186652e+01 7.105156e+01 6.168989e+01 7.941708e+01 5.842412e+01 6.077900e+01 5.658842e+01 4.398128e+01 3.585213e+01 2.984229e+01 5.679596e+01
<GCONST> 7.501834e+01
<STATE> 9
<MEAN> 13
 -6.970662e+00 -1.754626e+00 -1.932361e+00 3.873816e-01 -8.301708e-01 -9.068478e-01 -2.553806e-01 -7.914227e-01 -6.903931e-01 -7.925315e-01 -5.607896e-01 -5.058363e-01 5.076346e+01
<VARIANCE> 13
 1.328157e+01 1.660231e+01 2.294320e+01 3.005108e+01 3.002595e+01 3.107351e+01 3.478369e+01 3.007240e+01 2.866391e+01 2.422326e+01 2.047781e+01 1.785091e+01 5.999218e+01
<GCONST> 6.615398e+01
<TRANSP> 10
 0.000000e+00 1.000000e+00 0.000000e+00 0.000000e+00 0.000000e+00 0.000000e+00 0.000000e+00 0.000000e+00 0.000000e+00 0.000000e+00
 0.000000e+00 6.567531e-01 3.432469e-01 0.000000e+00 0.000000e+00 0.000000e+00 0.000000e+00 0.000000e+00 0.000000e+00 0.000000e+00
 0.000000e+00 0.000000e+00 8.632052e-01 1.367948e-01 0.000000e+00 0.000000e+00 0.000000e+00 0.000000e+00 0.000000e+00 0.000000e+00
 0.000000e+00 0.000000e+00 0.000000e+00 8.300224e-01 1.699776e-01 0.000000e+00 0.000000e+00 0.000000e+00 0.000000e+00 0.000000e+00
 0.000000e+00 0.000000e+00 0.000000e+00 0.000000e+00 8.139197e-01 1.860804e-01 0.000000e+00 0.000000e+00 0.000000e+00 0.000000e+00
 0.000000e+00 0.000000e+00 0.000000e+00 0.000000e+00 0.000000e+00 7.704000e-01 2.296000e-01 0.000000e+00 0.000000e+00 0.000000e+00
 0.000000e+00 0.000000e+00 0.000000e+00 0.000000e+00 0.000000e+00 0.000000e+00 7.832744e-01 2.167256e-01 0.000000e+00 0.000000e+00
 0.000000e+00 0.000000e+00 0.000000e+00 0.000000e+00 0.000000e+00 0.000000e+00 0.000000e+00 8.093398e-01 1.906602e-01 0.000000e+00
 0.000000e+00 0.000000e+00 0.000000e+00 0.000000e+00 0.000000e+00 0.000000e+00 0.000000e+00 0.000000e+00 8.466032e-01 1.533968e-01
 0.000000e+00 0.000000e+00 0.000000e+00 0.000000e+00 0.000000e+00 0.000000e+00 0.000000e+00 0.000000e+00 0.000000e+00 0.000000e+00
<ENDHMM>
