~o
<STREAMINFO> 1 13
<VECSIZE> 13<NULLD><MFCC_0><DIAGC>
~h "cough"
<BEGINHMM>
<NUMSTATES> 10
<STATE> 2
<MEAN> 13
 -7.059759e+00 5.679144e-01 -2.377708e+00 -2.097528e+00 -3.902093e-01 -1.837349e+00 -1.451238e+00 -9.820280e-01 -2.726501e-01 -3.415663e-01 -7.585263e-01 -4.374822e-01 5.809294e+01
<VARIANCE> 13
 3.048851e+01 3.160379e+01 7.144277e+01 5.098802e+01 4.236401e+01 5.362284e+01 4.899523e+01 4.627827e+01 3.342124e+01 3.034671e+01 2.426598e+01 2.109575e+01 1.517919e+02
<GCONST> 7.260073e+01
<STATE> 3
<MEAN> 13
 -7.300435e+00 -2.352791e+00 -3.217811e+00 -2.505558e+00 -3.171627e+00 -1.861701e+00 -1.015412e+00 -1.809955e+00 -1.635600e+00 -1.115720e+00 -1.413322e-01 -6.796255e-01 7.542773e+01
<VARIANCE> 13
 1.499696e+01 2.798354e+01 4.967325e+01 6.168244e+01 5.534373e+01 5.503928e+01 4.950170e+01 5.432360e+01 4.256298e+01 3.983436e+01 3.244401e+01 2.449736e+01 1.433067e+01
<GCONST> 7.065410e+01
<STATE> 4
<MEAN> 13
 -6.343580e+00 1.377278e+00 -3.472827e+00 -4.668536e+00 -4.498250e+00 -1.845379e+00 -2.576330e+00 -1.656760e+00 9.224585e-01 -2.732802e-01 9.080758e-01 4.392772e-01 6.973996e+01
<VARIANCE> 13
 1.652677e+01 2.156204e+01 4.325646e+01 4.648766e+01 4.992762e+01 5.978968e+01 4.497570e+01 4.518779e+01 4.015951e+01 3.269948e+01 2.565505e+01 2.166812e+01 1.344312e+01
<GCONST> 6.909227e+01
<STATE> 5
<MEAN> 13
 -9.539712e+00 -3.357874e+00 -7.919232e-01 2.551663e+00 -2.945931e-01 -2.412425e+00 -2.436920e+00 -2.001973e+00 -1.126894e+00 2.695638e-01 -1.447853e+00 -3.900072e-01 6.778225e+01
<VARIANCE> 13
 1.693839e+01 2.495628e+01 3.431886e+01 4.445679e+01 4.543589e+01 4.719751e+01 4.890134e+01 5.513612e+01 3.711861e+01 3.524181e+01 3.091232e+01 2.385592e+01 1.209055e+01
<GCONST> 6.911153e+01
<STATE> 6
<MEAN> 13
 -8.724924e+00 -5.773058e+00 -6.584055e+00 -3.169530e+00 -1.856413e+00 -6.115094e-01 1.140454e+00 -1.669773e+00 -1.436173e+00 -8.685536e-01 8.221199e-01 -1.125378e+00 6.422184e+01
<VARIANCE> 13
 1.821504e+01 2.418659e+01 4.210357e+01 6.193278e+01 8.608760e+01 9.906469e+01 8.756228e+01 8.332422e+01 5.653756e+01 4.926477e+01 4.550235e+01 4.251405e+01 2.223452e+01
<GCONST> 7.439421e+01
<STATE> 7
<MEAN> 13
 -4.859161e+00 -2.979847e+00 1.414220e+00 1.302252e+00 -2.953597e+00 -2.894562e+00 -2.158190e+00 -3.549013e+00 -4.379987e+00 -4.009828e+00 -1.559378e+00 -1.770515e+00 6.739568e+01
<VARIANCE> 13
 2.421001e+01 3.691753e+01 5.518948e+01 7.443311e+01 7.530550e+01 1.005467e+02 9.677180e+01 9.976728e+01 1.170969e+02 9.866736e+01 8.551250e+01 5.029852e+01 3.330448e+01
<GCONST> 7.834299e+01
<STATE> 8
<MEAN> 13
 -6.574432e+00 -4.116850e-01 6.461182e-01 -1.036769e-02 -9.670851e-01 -1.853476e+00 -4.438603e-01 -2.207530e+00 8.088576e-01 -6.351030e-01 4.884048e-01 -1.339534e-01 5.850877e+01
<VARIANCE> 13
 4.116663e+01 3.319556e+01 3.756675e+01 6.139610e+01 6.345164e+01 7.383091e+01 6.586445e+01 7.044691e+01 5.922555e+01 4.760105e+01 3.679726e+01 3.050060e+01 2.845042e+01
<GCONST> 7.406597e+01
<STATE> 9
<MEAN> 13
 -7.174014e+00 -1.746754e+00 -1.866412e+00 3.704047e-01 -6.037372e-01 -7.932419e-01 -7.032223e-01 -7.333022e-01 -8.762481e-01 -9.584306e-01 -7.984682e-01 -5.816721e-01 5.064850e+01
<VARIANCE> 13
 1.419785e+01 1.675377e+01 2.543456e+01 3.341629e+01 3.148403e+01 3.428348e+01 3.678413e+01 3.100546e+01 3.110533e+01 2.531837e+01 2.148675e+01 1.897157e+01 5.855803e+01
<GCONST> 6.688195e+01
<TRANSP> 10
 0.000000e+00 1.000000e+00 0.000000e+00 0.000000e+00 0.000000e+00 0.000000e+00 0.000000e+00 0.000000e+00 0.000000e+00 0.000000e+00
 0.000000e+00 6.800804e-01 3.199197e-01 0.000000e+00 0.000000e+00 0.000000e+00 0.000000e+00 0.000000e+00 0.000000e+00 0.000000e+00
 0.000000e+00 0.000000e+00 8.542085e-01 1.457915e-01 0.000000e+00 0.000000e+00 0.000000e+00 0.000000e+00 0.000000e+00 0.000000e+00
 0.000000e+00 0.000000e+00 0.000000e+00 7.928083e-01 2.071917e-01 0.000000e+00 0.000000e+00 0.000000e+00 0.000000e+00 0.000000e+00
 0.000000e+00 0.000000e+00 0.000000e+00 0.000000e+00 8.159847e-01 1.840153e-01 0.000000e+00 0.000000e+00 0.000000e+00 0.000000e+00
 0.000000e+00 0.000000e+00 0.000000e+00 0.000000e+00 0.000000e+00 7.902659e-01 2.097341e-01 0.000000e+00 0.000000e+00 0.000000e+00
 0.000000e+00 0.000000e+00 0.000000e+00 0.000000e+00 0.000000e+00 0.000000e+00 7.810069e-01 2.189931e-01 0.000000e+00 0.000000e+00
 0.000000e+00 0.000000e+00 0.000000e+00 0.000000e+00 0.000000e+00 0.000000e+00 0.000000e+00 8.384403e-01 1.615597e-01 0.000000e+00
 0.000000e+00 0.000000e+00 0.000000e+00 0.000000e+00 0.000000e+00 0.000000e+00 0.000000e+00 0.000000e+00 8.576735e-01 1.423265e-01
 0.000000e+00 0.000000e+00 0.000000e+00 0.000000e+00 0.000000e+00 0.000000e+00 0.000000e+00 0.000000e+00 0.000000e+00 0.000000e+00
<ENDHMM>
