~o
<STREAMINFO> 1 13
<VECSIZE> 13<NULLD><MFCC_0><DIAGC>
~h "cough"
<BEGINHMM>
<NUMSTATES> 10
<STATE> 2
<MEAN> 13
 -6.204969e+00 5.501104e-01 -1.796710e+00 -1.757363e+00 -1.480009e+00 -1.372023e+00 -1.924511e+00 -5.676520e-01 -3.953189e-01 -6.842461e-01 -4.782462e-01 -3.870067e-01 5.702895e+01
<VARIANCE> 13
 2.432798e+01 3.631663e+01 4.721614e+01 4.441901e+01 4.680717e+01 4.403371e+01 4.680565e+01 3.983671e+01 3.270692e+01 2.554420e+01 2.312635e+01 1.830553e+01 1.272069e+02
<GCONST> 7.110847e+01
<STATE> 3
<MEAN> 13
 -7.073688e+00 -7.649968e-01 -3.589536e+00 -5.609164e+00 -5.011693e+00 -1.493962e+00 -1.047758e+00 -3.491453e-01 -6.607341e-01 -6.557325e-01 5.177602e-01 -3.003213e-01 7.463192e+01
<VARIANCE> 13
 1.338392e+01 3.280598e+01 4.747378e+01 5.226736e+01 5.181477e+01 5.383073e+01 4.913525e+01 4.672045e+01 4.148364e+01 3.151173e+01 2.652579e+01 2.375975e+01 1.890187e+01
<GCONST> 7.002692e+01
<STATE> 4
<MEAN> 13
 -7.564964e+00 -3.336309e+00 -1.448721e+00 2.849636e+00 -6.940124e-01 -3.003233e+00 -2.500070e+00 -3.696808e+00 -7.525753e-01 -6.754384e-01 -1.214892e+00 -5.756816e-01 7.179327e+01
<VARIANCE> 13
 2.007829e+01 3.091317e+01 4.576044e+01 4.331782e+01 4.855861e+01 6.099635e+01 5.906533e+01 5.477962e+01 4.164011e+01 4.512736e+01 3.777486e+01 2.646730e+01 1.161884e+01
<GCONST> 7.088949e+01
<STATE> 5
<MEAN> 13
 -7.838673e+00 -5.644203e-01 -2.479646e+00 -1.335455e+00 -2.624958e+00 -1.711036e+00 -1.040974e+00 -2.407996e+00 4.236429e-01 -6.987849e-01 -3.466973e-01 -1.837720e-01 6.544135e+01
<VARIANCE> 13
 1.647339e+01 2.144534e+01 3.751372e+01 6.352687e+01 4.340225e+01 4.267487e+01 3.988560e+01 3.856224e+01 3.178097e+01 3.003901e+01 2.354399e+01 1.937543e+01 1.135106e+01
<GCONST> 6.781179e+01
<STATE> 6
<MEAN> 13
 -9.562034e+00 -5.846357e+00 -5.467590e+00 -1.293813e+00 -7.680146e-01 -1.852070e+00 5.892451e-01 -2.069124e+00 -1.771853e+00 2.891729e-01 1.418387e+00 -7.033882e-01 6.365591e+01
<VARIANCE> 13
 2.099298e+01 2.430188e+01 5.243377e+01 5.985774e+01 9.314617e+01 8.653235e+01 8.422317e+01 8.995885e+01 5.341355e+01 4.372828e+01 4.357909e+01 3.864048e+01 1.890977e+01
<GCONST> 7.423080e+01
<STATE> 7
<MEAN> 13
 -5.404734e+00 -2.827526e+00 9.887279e-01 -3.072666e-02 -3.434380e+00 -8.376349e-01 -1.601710e+00 -2.980087e+00 -4.159412e+00 -4.176819e+00 -1.621123e+00 -1.428662e+00 6.635294e+01
<VARIANCE> 13
 2.282267e+01 4.004913e+01 5.238826e+01 7.560800e+01 9.432943e+01 1.015330e+02 1.089595e+02 1.235936e+02 1.430468e+02 1.089325e+02 8.580767e+01 5.093696e+01 3.699141e+01
<GCONST> 7.931695e+01
<STATE> 8
<MEAN> 13
 -6.587412e+00 -1.927605e-01 -1.146902e+00 -7.240440e-01 9.647975e-02 -2.635698e+00 -1.082918e+00 -2.826642e+00 7.539272e-01 -2.664411e-01 1.728316e-01 -2.752683e-01 5.656599e+01
<VARIANCE> 13
 4.576935e+01 3.292397e+01 6.086093e+01 6.707404e+01 6.870210e+01 7.927372e+01 6.905089e+01 7.145033e+01 5.549926e+01 4.685592e+01 3.926448e+01 3.172436e+01 5.702067e+01
<GCONST> 7.566540e+01
<STATE> 9
<MEAN> 13
 -7.077216e+00 -1.445154e+00 -1.589693e+00 7.291234e-01 -9.501970e-01 -1.241804e+00 -2.673853e-01 -5.572813e-01 -8.549119e-01 -8.779056e-01 -6.464379e-01 -5.288522e-01 5.077514e+01
<VARIANCE> 13
 1.421387e+01 1.704070e+01 2.501614e+01 3.392446e+01 3.305523e+01 3.263448e+01 3.511615e+01 2.998144e+01 3.011465e+01 2.572370e+01 2.151612e+01 1.862451e+01 5.725578e+01
<GCONST> 6.676191e+01
<TRANSP> 10
 0.000000e+00 1.000000e+00 0.000000e+00 0.000000e+00 0.000000e+00 0.000000e+00 0.000000e+00 0.000000e+00 0.000000e+00 0.000000e+00
 0.000000e+00 5.591323e-01 4.408676e-01 0.000000e+00 0.000000e+00 0.000000e+00 0.000000e+00 0.000000e+00 0.000000e+00 0.000000e+00
 0.000000e+00 0.000000e+00 8.450692e-01 1.549309e-01 0.000000e+00 0.000000e+00 0.000000e+00 0.000000e+00 0.000000e+00 0.000000e+00
 0.000000e+00 0.000000e+00 0.000000e+00 8.287656e-01 1.712344e-01 0.000000e+00 0.000000e+00 0.000000e+00 0.000000e+00 0.000000e+00
 0.000000e+00 0.000000e+00 0.000000e+00 0.000000e+00 7.913624e-01 2.086376e-01 0.000000e+00 0.000000e+00 0.000000e+00 0.000000e+00
 0.000000e+00 0.000000e+00 0.000000e+00 0.000000e+00 0.000000e+00 8.027095e-01 1.972906e-01 0.000000e+00 0.000000e+00 0.000000e+00
 0.000000e+00 0.000000e+00 0.000000e+00 0.000000e+00 0.000000e+00 0.000000e+00 7.891431e-01 2.108569e-01 0.000000e+00 0.000000e+00
 0.000000e+00 0.000000e+00 0.000000e+00 0.000000e+00 0.000000e+00 0.000000e+00 0.000000e+00 8.084505e-01 1.915495e-01 0.000000e+00
 0.000000e+00 0.000000e+00 0.000000e+00 0.000000e+00 0.000000e+00 0.000000e+00 0.000000e+00 0.000000e+00 8.513291e-01 1.486708e-01
 0.000000e+00 0.000000e+00 0.000000e+00 0.000000e+00 0.000000e+00 0.000000e+00 0.000000e+00 0.000000e+00 0.000000e+00 0.000000e+00
<ENDHMM>
