~o
<STREAMINFO> 1 13
<VECSIZE> 13<NULLD><MFCC_0><DIAGC>
~h "cough"
<BEGINHMM>
<NUMSTATES> 13
<STATE> 2
<MEAN> 13
 -4.725598e+00 7.277389e-01 -4.434666e+00 8.840408e-01 2.653900e-01 -6.484135e+00 -2.206836e+00 -8.867004e-01 -1.229254e-01 -5.942698e-01 -2.121192e+00 2.020620e+00 5.306947e+01
<VARIANCE> 13
 6.600108e+00 1.162902e+01 3.614974e+01 3.934626e+01 1.994623e+01 6.158647e+01 2.410103e+01 1.558822e+01 2.542732e+01 7.314115e+00 1.231083e+01 1.417354e+01 4.089318e+02
<GCONST> 6.493635e+01
<STATE> 3
<MEAN> 13
 -6.311762e+00 1.173493e+00 2.329782e-01 1.517516e+00 9.902669e-01 2.013629e+00 6.633011e-02 6.837632e-01 5.786991e-01 -9.914827e-01 -2.264548e-01 7.631666e-01 4.292802e+01
<VARIANCE> 13
 1.337682e+00 3.519474e+00 1.277516e+01 1.574953e+01 1.135337e+01 1.890480e+01 1.482420e+01 1.372074e+01 1.356461e+01 1.174962e+01 1.189716e+01 1.281545e+01 1.386385e+02
<GCONST> 5.646017e+01
<STATE> 4
<MEAN> 13
 -6.244608e+00 -2.350684e+00 -9.499657e-01 -6.550130e-01 -2.392129e+00 1.302003e+00 1.337272e+00 7.010092e-02 3.418604e-01 4.073380e-01 -9.884869e-01 1.937313e-01 4.855799e+01
<VARIANCE> 13
 6.233948e+00 9.843920e+00 1.924084e+01 2.162227e+01 1.221873e+01 3.050068e+01 1.563908e+01 1.828070e+01 1.396450e+01 1.202990e+01 1.099138e+01 1.148009e+01 2.009468e+02
<GCONST> 6.088103e+01
<STATE> 5
<MEAN> 13
 -5.949300e+00 -5.620271e-01 -7.207187e+00 3.695104e-01 -4.828521e+00 -7.485837e+00 9.539517e-01 -2.778908e+00 -2.457541e+00 -1.191198e-01 -1.384125e+00 3.470779e+00 7.640118e+01
<VARIANCE> 13
 9.676056e+00 6.364949e+00 1.155283e+01 1.886295e+01 1.985956e+01 3.491328e+01 2.506637e+01 2.064109e+01 2.201646e+01 1.335186e+01 1.925416e+01 1.217550e+01 1.685444e+01
<GCONST> 6.015257e+01
<STATE> 6
<MEAN> 13
 -6.342713e+00 -2.470445e+00 -3.020197e+00 -1.419714e+00 1.308784e+00 -3.069176e+00 -2.640504e+00 -3.196305e+00 -9.416246e+00 2.309052e+00 9.915007e-01 4.928426e-01 7.208897e+01
<VARIANCE> 13
 7.231048e+00 8.981852e+00 1.562111e+01 3.415775e+01 2.130453e+01 2.191571e+01 2.173098e+01 2.888090e+01 3.228234e+01 9.685582e+00 1.803079e+01 1.601389e+01 1.864353e+01
<GCONST> 6.126984e+01
<STATE> 7
<MEAN> 13
 -3.295353e+00 -2.937953e+00 -1.938658e+00 3.379846e+00 2.411421e-01 -2.641227e+00 1.482366e+00 1.195348e+00 -4.692828e+00 3.825167e+00 1.044548e-01 5.112356e-01 6.954256e+01
<VARIANCE> 13
 1.200964e+01 6.895093e+00 9.054711e+00 1.347807e+01 1.513565e+01 1.923399e+01 1.027438e+01 1.564409e+01 1.350866e+01 1.436243e+01 1.433582e+01 1.732196e+01 1.211965e+01
<GCONST> 5.714426e+01
<STATE> 8
<MEAN> 13
 -4.402190e+00 -4.657041e+00 -4.380762e+00 5.845792e+00 -2.842714e+00 -5.418436e+00 2.631695e+00 -4.039191e-01 -6.151465e+00 -6.500816e-01 5.023871e-01 2.108099e+00 6.302215e+01
<VARIANCE> 13
 8.727621e+00 1.640936e+01 1.216380e+01 1.031595e+01 1.060273e+01 3.680595e+01 3.286897e+01 3.398193e+01 1.878153e+01 2.017451e+01 2.139908e+01 3.273875e+01 8.651151e+00
<GCONST> 6.132093e+01
<STATE> 9
<MEAN> 13
 -2.042773e+00 -7.596626e-01 -2.930802e+00 1.198931e+01 -1.702930e-01 -3.574070e+00 -4.494041e+00 2.734252e+00 -1.654184e+00 -1.293333e-01 -4.111732e+00 1.682507e+00 6.374383e+01
<VARIANCE> 13
 5.520433e+00 7.871241e+00 7.278086e+00 1.993484e+01 9.154222e+00 3.195813e+01 3.449649e+01 7.305727e+00 2.141725e+01 1.558025e+01 1.651363e+01 1.080560e+01 1.171672e+01
<GCONST> 5.730505e+01
<STATE> 10
<MEAN> 13
 -5.136441e+00 1.330732e+00 -5.574616e+00 4.941450e+00 1.828058e+00 -5.945894e+00 -1.775522e-01 1.050768e+00 -5.433141e+00 6.637560e-01 -3.486511e+00 2.953085e+00 5.943733e+01
<VARIANCE> 13
 6.329233e+00 4.810945e+00 1.735168e+01 1.464657e+01 7.962472e+00 1.692109e+01 1.705448e+01 1.231620e+01 2.985924e+01 1.636554e+01 1.483756e+01 1.776340e+01 5.216039e+00
<GCONST> 5.651471e+01
<STATE> 11
<MEAN> 13
 -3.362987e+00 6.010962e-01 -2.656300e+00 8.823805e+00 1.707279e+00 -6.341827e+00 -1.050270e+00 9.512314e-01 -3.991856e+00 1.439051e+00 -2.744949e+00 2.053775e+00 5.622203e+01
<VARIANCE> 13
 2.527800e+00 9.155220e+00 4.498486e+00 1.182702e+01 1.898490e+01 2.787028e+01 2.024582e+01 1.201628e+01 2.024413e+01 1.543442e+01 1.797160e+01 2.003761e+01 2.588789e+00
<GCONST> 5.535568e+01
<STATE> 12
<MEAN> 13
 -5.346539e+00 1.745459e+00 -2.675682e+00 6.809895e+00 3.448418e+00 -2.343313e+00 -5.890726e-03 1.469593e+00 -2.521531e+00 7.877033e-01 -3.030406e+00 1.150357e+00 5.144429e+01
<VARIANCE> 13
 5.526025e+00 1.095928e+01 5.680872e+00 1.170466e+01 1.131658e+01 2.004471e+01 2.054359e+01 1.209093e+01 2.396220e+01 1.356588e+01 1.248237e+01 9.733470e+00 6.379674e+00
<GCONST> 5.556944e+01
<TRANSP> 13
 0.000000e+00 1.000000e+00 0.000000e+00 0.000000e+00 0.000000e+00 0.000000e+00 0.000000e+00 0.000000e+00 0.000000e+00 0.000000e+00 0.000000e+00 0.000000e+00 0.000000e+00
 0.000000e+00 5.915504e-01 4.084497e-01 0.000000e+00 0.000000e+00 0.000000e+00 0.000000e+00 0.000000e+00 0.000000e+00 0.000000e+00 0.000000e+00 0.000000e+00 0.000000e+00
 0.000000e+00 0.000000e+00 7.518069e-01 2.481931e-01 0.000000e+00 0.000000e+00 0.000000e+00 0.000000e+00 0.000000e+00 0.000000e+00 0.000000e+00 0.000000e+00 0.000000e+00
 0.000000e+00 0.000000e+00 0.000000e+00 6.449246e-01 3.550754e-01 0.000000e+00 0.000000e+00 0.000000e+00 0.000000e+00 0.000000e+00 0.000000e+00 0.000000e+00 0.000000e+00
 0.000000e+00 0.000000e+00 0.000000e+00 0.000000e+00 7.258149e-01 2.741852e-01 0.000000e+00 0.000000e+00 0.000000e+00 0.000000e+00 0.000000e+00 0.000000e+00 0.000000e+00
 0.000000e+00 0.000000e+00 0.000000e+00 0.000000e+00 0.000000e+00 6.489778e-01 3.510223e-01 0.000000e+00 0.000000e+00 0.000000e+00 0.000000e+00 0.000000e+00 0.000000e+00
 0.000000e+00 0.000000e+00 0.000000e+00 0.000000e+00 0.000000e+00 0.000000e+00 7.669315e-01 2.330686e-01 0.000000e+00 0.000000e+00 0.000000e+00 0.000000e+00 0.000000e+00
 0.000000e+00 0.000000e+00 0.000000e+00 0.000000e+00 0.000000e+00 0.000000e+00 0.000000e+00 6.989732e-01 3.010267e-01 0.000000e+00 0.000000e+00 0.000000e+00 0.000000e+00
 0.000000e+00 0.000000e+00 0.000000e+00 0.000000e+00 0.000000e+00 0.000000e+00 0.000000e+00 0.000000e+00 7.609043e-01 2.390958e-01 0.000000e+00 0.000000e+00 0.000000e+00
 0.000000e+00 0.000000e+00 0.000000e+00 0.000000e+00 0.000000e+00 0.000000e+00 0.000000e+00 0.000000e+00 0.000000e+00 7.466358e-01 2.533642e-01 0.000000e+00 0.000000e+00
 0.000000e+00 0.000000e+00 0.000000e+00 0.000000e+00 0.000000e+00 0.000000e+00 0.000000e+00 0.000000e+00 0.000000e+00 0.000000e+00 7.581500e-01 2.418500e-01 0.000000e+00
 0.000000e+00 0.000000e+00 0.000000e+00 0.000000e+00 0.000000e+00 0.000000e+00 0.000000e+00 0.000000e+00 0.000000e+00 0.000000e+00 0.000000e+00 7.357078e-01 2.642923e-01
 0.000000e+00 0.000000e+00 0.000000e+00 0.000000e+00 0.000000e+00 0.000000e+00 0.000000e+00 0.000000e+00 0.000000e+00 0.000000e+00 0.000000e+00 0.000000e+00 0.000000e+00
<ENDHMM>
